MTP
version = 1.1.0
potential_name = MTP1m
scaling = 1.557926371149511e+00
species_count = 2
potential_tag = 
radial_basis_type = RBChebyshev
	min_dist = 2.000000000000000e+00
	max_dist = 5.000000000000000e+00
	radial_basis_size = 8
	radial_funcs_count = 2
	radial_coeffs
		0-0
			{-1.677174159749675e-01, -6.160369030489861e-01, -3.320017228812808e-01, -5.082751925028001e-01, -2.511234232327051e-01, -3.103553397417770e-01, -1.204104651796469e-01, -8.843625073953829e-02}
			{-4.846947012845988e-02, -2.416625426952350e-02, -6.616386033297134e-02, 5.347875991516656e-03, -1.569980795795638e-02, -4.728658354994661e-03, -6.502190133198060e-03, -4.845785744542525e-03}
		0-1
			{5.910823866833297e-02, 1.328847713593128e-01, 6.564668427727682e-02, 7.964751510087617e-02, 3.842835106514507e-02, 4.125639921892243e-02, 1.412468803855974e-02, 1.109557409782440e-02}
			{8.707788720203004e-02, 1.404389740134719e-01, 6.939819821011882e-02, 3.682875975755714e-02, 6.512976449855077e-03, -1.618093609700172e-02, -1.764412015011202e-02, -1.213256320816881e-02}
		1-0
			{-3.702028232403965e-02, -4.820240559727238e-02, -3.879348858057832e-02, -2.403791167661704e-02, -1.811888867652610e-02, -8.946654312208211e-03, -1.667739835063403e-03, -1.287688519437468e-03}
			{4.829895573825652e-01, 5.839553942991885e-01, 5.107814704400901e-01, 1.913384196693336e-01, 1.649728853062139e-01, 4.294285914398158e-02, -9.105530548333197e-03, -7.434794436423779e-03}
		1-1
			{-1.490214152132720e-02, -1.519365472456712e-02, -7.058629550925367e-03, -5.846059444661850e-03, -6.122834055937444e-03, -4.479780769764571e-03, -1.869456377937518e-03, -1.798878845955117e-03}
			{1.525323382028506e-01, 1.306600009206112e-01, 1.150770482607418e-01, 1.044044364172422e-02, 5.031680738424862e-02, 2.441483419335651e-02, 1.131072540669025e-02, 1.224863084906299e-02}
alpha_moments_count = 18
alpha_index_basic_count = 11
alpha_index_basic = {{0, 0, 0, 0}, {0, 1, 0, 0}, {0, 0, 1, 0}, {0, 0, 0, 1}, {0, 2, 0, 0}, {0, 1, 1, 0}, {0, 1, 0, 1}, {0, 0, 2, 0}, {0, 0, 1, 1}, {0, 0, 0, 2}, {1, 0, 0, 0}}
alpha_index_times_count = 14
alpha_index_times = {{0, 0, 1, 11}, {1, 1, 1, 12}, {2, 2, 1, 12}, {3, 3, 1, 12}, {4, 4, 1, 13}, {5, 5, 2, 13}, {6, 6, 2, 13}, {7, 7, 1, 13}, {8, 8, 2, 13}, {9, 9, 1, 13}, {0, 10, 1, 14}, {0, 11, 1, 15}, {0, 12, 1, 16}, {0, 15, 1, 17}}
alpha_scalar_moments = 9
alpha_moment_mapping = {0, 10, 11, 12, 13, 14, 15, 16, 17}
species_coeffs = {-2.918602573994699e+00, -4.460064698492708e+00}
moment_coeffs = {1.254761590091397e+00, -3.541842388135978e-01, -1.792321762726883e+00, 1.969870513877942e+00, -1.670053648400689e-01, -1.876940688564423e+00, 5.013490436246117e+00, -4.037112641955466e+00, -2.300976502115819e+00}