MTP
version = 1.1.0
potential_name = MTP1m
scaling = 5.260942760942766e-01
species_count = 2
potential_tag = 
radial_basis_type = RBChebyshev
	min_dist = 2.000000000000000e+00
	max_dist = 5.000000000000000e+00
	radial_basis_size = 8
	radial_funcs_count = 3
	radial_coeffs
		0-0
			{2.256837533507894e-01, 6.409256194235438e-01, 3.695288303176296e-01, 4.774498424227523e-01, 2.454919325700463e-01, 2.717299892847774e-01, 1.043660948465554e-01, 6.950569629350385e-02}
			{1.070885406744579e-02, -1.973907018996844e-02, -7.491005510850648e-02, -8.447837222891813e-02, -4.295021617550662e-02, 2.514145860926792e-02, 3.569019429291100e-02, 2.653321801394632e-02}
			{-1.282163880335162e-02, -3.549125469042622e-02, -2.033321000103337e-02, -2.594099558548060e-02, -1.349813247365273e-02, -1.538006390437862e-02, -6.138261430582145e-03, -4.091765419047847e-03}
		0-1
			{-2.137216544928622e-02, -1.171951986687153e-01, -1.687839342791777e-02, -7.119885281284112e-02, -8.455284664188030e-03, -3.866067031876223e-02, -9.772209583954526e-03, -1.270896023411424e-02}
			{-1.597153242807402e-01, -3.315285986799281e-01, -1.228343793109081e-01, -1.652421138853067e-01, -6.417989253413670e-02, -7.095471035836329e-02, -1.304004950879167e-02, -1.135237050808554e-02}
			{-3.744368000704814e-01, -5.052349542291253e-01, -1.944339341389733e-01, -1.557266392001061e-01, -1.315117750222994e-01, -9.709957687559261e-02, -2.530957435178985e-02, -6.492322901328042e-04}
		1-0
			{-1.373412662415391e-02, -3.718035204692859e-02, -1.167153258612967e-02, -2.393655378164619e-02, -4.381884989734610e-03, -1.209607819170983e-02, -2.562702567065470e-03, -3.795040302272576e-03}
			{-3.696527756568396e-01, 3.178996156613118e-02, -5.857871529158380e-01, -1.411151753590062e-01, -1.732040320112432e-01, -1.429108448815436e-02, -7.046082713209265e-02, -8.356318387624686e-03}
			{3.821691148720550e-01, 5.180449582831390e-01, 2.034384678647624e-01, 1.649002751420231e-01, 1.346940014820251e-01, 1.011232462300750e-01, 2.692585847864002e-02, 1.864220569073087e-03}
		1-1
			{2.306791643510836e-03, 2.177959022256159e-03, 8.782421513120109e-03, -2.522473784464084e-03, 1.247809614695489e-03, -3.344211529839997e-03, -9.829683939310233e-04, -1.322575278471486e-03}
			{2.967614170397626e-02, 4.784099576755949e-01, 9.737935069707285e-02, 8.612316282258449e-02, 5.601662467832602e-02, 8.227664405676137e-02, 4.788730918697833e-02, 1.474742033420865e-02}
			{-5.433368959671182e-04, -5.101080738106304e-03, -1.835302411220004e-03, -5.784333269053071e-04, -7.541841474381326e-04, -6.009680864958227e-04, -4.555039210224085e-04, -5.445725087013682e-05}
alpha_moments_count = 84
alpha_index_basic_count = 46
alpha_index_basic = {{0, 0, 0, 0}, {0, 1, 0, 0}, {0, 0, 1, 0}, {0, 0, 0, 1}, {0, 2, 0, 0}, {0, 1, 1, 0}, {0, 1, 0, 1}, {0, 0, 2, 0}, {0, 0, 1, 1}, {0, 0, 0, 2}, {0, 3, 0, 0}, {0, 2, 1, 0}, {0, 2, 0, 1}, {0, 1, 2, 0}, {0, 1, 1, 1}, {0, 1, 0, 2}, {0, 0, 3, 0}, {0, 0, 2, 1}, {0, 0, 1, 2}, {0, 0, 0, 3}, {0, 4, 0, 0}, {0, 3, 1, 0}, {0, 3, 0, 1}, {0, 2, 2, 0}, {0, 2, 1, 1}, {0, 2, 0, 2}, {0, 1, 3, 0}, {0, 1, 2, 1}, {0, 1, 1, 2}, {0, 1, 0, 3}, {0, 0, 4, 0}, {0, 0, 3, 1}, {0, 0, 2, 2}, {0, 0, 1, 3}, {0, 0, 0, 4}, {1, 0, 0, 0}, {1, 1, 0, 0}, {1, 0, 1, 0}, {1, 0, 0, 1}, {1, 2, 0, 0}, {1, 1, 1, 0}, {1, 1, 0, 1}, {1, 0, 2, 0}, {1, 0, 1, 1}, {1, 0, 0, 2}, {2, 0, 0, 0}}
alpha_index_times_count = 117
alpha_index_times = {{0, 0, 1, 46}, {1, 1, 1, 47}, {2, 2, 1, 47}, {3, 3, 1, 47}, {1, 4, 1, 48}, {2, 5, 1, 48}, {3, 6, 1, 48}, {1, 5, 1, 49}, {2, 7, 1, 49}, {3, 8, 1, 49}, {1, 6, 1, 50}, {2, 8, 1, 50}, {3, 9, 1, 50}, {4, 4, 1, 51}, {5, 5, 1, 51}, {6, 6, 1, 51}, {4, 5, 1, 52}, {5, 7, 1, 52}, {6, 8, 1, 52}, {4, 6, 1, 53}, {5, 8, 1, 53}, {6, 9, 1, 53}, {5, 5, 1, 54}, {7, 7, 1, 54}, {8, 8, 1, 54}, {5, 6, 1, 55}, {7, 8, 1, 55}, {8, 9, 1, 55}, {6, 6, 1, 56}, {8, 8, 1, 56}, {9, 9, 1, 56}, {4, 4, 1, 57}, {5, 5, 2, 57}, {6, 6, 2, 57}, {7, 7, 1, 57}, {8, 8, 2, 57}, {9, 9, 1, 57}, {4, 10, 1, 58}, {5, 11, 2, 58}, {6, 12, 2, 58}, {7, 13, 1, 58}, {8, 14, 2, 58}, {9, 15, 1, 58}, {4, 11, 1, 59}, {5, 13, 2, 59}, {6, 14, 2, 59}, {7, 16, 1, 59}, {8, 17, 2, 59}, {9, 18, 1, 59}, {4, 12, 1, 60}, {5, 14, 2, 60}, {6, 15, 2, 60}, {7, 17, 1, 60}, {8, 18, 2, 60}, {9, 19, 1, 60}, {10, 10, 1, 61}, {11, 11, 3, 61}, {12, 12, 3, 61}, {13, 13, 3, 61}, {14, 14, 6, 61}, {15, 15, 3, 61}, {16, 16, 1, 61}, {17, 17, 3, 61}, {18, 18, 3, 61}, {19, 19, 1, 61}, {20, 20, 1, 62}, {21, 21, 4, 62}, {22, 22, 4, 62}, {23, 23, 6, 62}, {24, 24, 12, 62}, {25, 25, 6, 62}, {26, 26, 4, 62}, {27, 27, 12, 62}, {28, 28, 12, 62}, {29, 29, 4, 62}, {30, 30, 1, 62}, {31, 31, 4, 62}, {32, 32, 6, 62}, {33, 33, 4, 62}, {34, 34, 1, 62}, {0, 35, 1, 63}, {1, 36, 1, 64}, {2, 37, 1, 64}, {3, 38, 1, 64}, {4, 39, 1, 65}, {5, 40, 2, 65}, {6, 41, 2, 65}, {7, 42, 1, 65}, {8, 43, 2, 65}, {9, 44, 1, 65}, {0, 45, 1, 66}, {35, 35, 1, 67}, {0, 46, 1, 68}, {0, 47, 1, 69}, {0, 57, 1, 70}, {0, 61, 1, 71}, {1, 48, 1, 72}, {2, 49, 1, 72}, {3, 50, 1, 72}, {1, 58, 1, 73}, {2, 59, 1, 73}, {3, 60, 1, 73}, {4, 51, 1, 74}, {5, 52, 2, 74}, {6, 53, 2, 74}, {7, 54, 1, 74}, {8, 55, 2, 74}, {9, 56, 1, 74}, {0, 63, 1, 75}, {0, 64, 1, 76}, {35, 47, 1, 77}, {47, 47, 1, 78}, {0, 68, 1, 79}, {0, 69, 1, 80}, {0, 70, 1, 81}, {0, 72, 1, 82}, {0, 75, 1, 83}}
alpha_scalar_moments = 29
alpha_moment_mapping = {0, 35, 45, 46, 47, 57, 61, 62, 63, 64, 65, 66, 67, 68, 69, 70, 71, 72, 73, 74, 75, 76, 77, 79, 80, 81, 82, 78, 83}
species_coeffs = {-1.832497898152736e+00, -8.169558634777206e-01}
moment_coeffs = {-4.606609466535610e+01, -7.157606758067458e+00, -8.044139316179906e+02, -4.949235109619501e+00, -1.153564021129824e+01, 9.561222269715833e+00, 2.397024322053578e+01, -8.984711553432115e+00, 7.536956475392857e+00, 5.870549391840838e+00, -4.645264988137502e-01, -2.332248719105795e+00, 7.035776109051606e-02, -1.252971659297097e+01, 1.757310496047113e+01, 6.301845941517512e+01, -6.961676902068619e+01, -1.502799458544182e+02, -1.509978881004342e+01, -5.342615925176308e+01, 3.963924210750237e+00, -1.349134962242093e+01, 1.289839874411302e+01, 2.273130670796249e+01, -1.012914400817810e+02, -1.796875346291372e+01, 1.026925014693698e+03, 1.551849977638177e+01, -4.826721129892918e+01}